<?xml version="1.0"?>
<opencv_storage>
<output type_id="opencv-haar-classifier">
  <size>
    20 20</size>
  <stages>
    <_>
      <trees>
        <_>
          <_>
            <feature>
              <rects>
                <_>
                  9 16 2 2 -1.</_>
                <_>
                  9 16 2 1 2.</_></rects>
              <tilted>1</tilted></feature>
            <threshold>-6.9246450439095497e-003</threshold>
            <left_val>0.8344191908836365</left_val>
            <right_val>-0.9999799728393555</right_val></_></_></trees>
      <stage_threshold>0.8344191908836365</stage_threshold>
      <parent>-1</parent>
      <next>-1</next></_>
    <_>
      <trees>
        <_>
          <_>
            <feature>
              <rects>
                <_>
                  0 0 15 6 -1.</_>
                <_>
                  0 3 15 3 2.</_></rects>
              <tilted>0</tilted></feature>
            <threshold>-0.0476036816835403</threshold>
            <left_val>0.6883571147918701</left_val>
            <right_val>-0.9999830126762390</right_val></_></_></trees>
      <stage_threshold>0.6883571147918701</stage_threshold>
      <parent>0</parent>
      <next>-1</next></_>
    <_>
      <trees>
        <_>
          <_>
            <feature>
              <rects>
                <_>
                  0 1 2 19 -1.</_>
                <_>
                  1 1 1 19 2.</_></rects>
              <tilted>0</tilted></feature>
            <threshold>-0.0185912996530533</threshold>
            <left_val>0.7970160245895386</left_val>
            <right_val>-0.7801191210746765</right_val></_></_>
        <_>
          <_>
            <feature>
              <rects>
                <_>
                  0 11 20 5 -1.</_>
                <_>
                  5 11 10 5 2.</_></rects>
              <tilted>0</tilted></feature>
            <threshold>-0.0738700479269028</threshold>
            <left_val>0.5948513746261597</left_val>
            <right_val>-0.9999831914901733</right_val></_></_></trees>
      <stage_threshold>-0.1852677017450333</stage_threshold>
      <parent>1</parent>
      <next>-1</next></_>
    <_>
      <trees>
        <_>
          <_>
            <feature>
              <rects>
                <_>
                  0 1 2 19 -1.</_>
                <_>
                  1 1 1 19 2.</_></rects>
              <tilted>0</tilted></feature>
            <threshold>-0.0185907296836376</threshold>
            <left_val>0.7194557785987854</left_val>
            <right_val>-0.7699617743492127</right_val></_></_>
        <_>
          <_>
            <feature>
              <rects>
                <_>
                  14 15 4 2 -1.</_>
                <_>
                  16 15 2 1 2.</_>
                <_>
                  14 16 2 1 2.</_></rects>
              <tilted>0</tilted></feature>
            <threshold>-1.9006070215255022e-003</threshold>
            <left_val>0.5691515207290649</left_val>
            <right_val>-0.4484033882617950</right_val></_></_></trees>
      <stage_threshold>-0.2008102983236313</stage_threshold>
      <parent>2</parent>
      <next>-1</next></_>
    <_>
      <trees>
        <_>
          <_>
            <feature>
              <rects>
                <_>
                  2 12 15 1 -1.</_>
                <_>
                  7 12 5 1 3.</_></rects>
              <tilted>0</tilted></feature>
            <threshold>-8.5835196077823639e-003</threshold>
            <left_val>-1.</left_val>
            <right_val>0.5134208798408508</right_val></_></_></trees>
      <stage_threshold>0.5134208798408508</stage_threshold>
      <parent>3</parent>
      <next>-1</next></_>
    <_>
      <trees>
        <_>
          <_>
            <feature>
              <rects>
                <_>
                  2 15 4 2 -1.</_>
                <_>
                  2 15 2 1 2.</_>
                <_>
                  4 16 2 1 2.</_></rects>
              <tilted>0</tilted></feature>
            <threshold>1.6313589876517653e-003</threshold>
            <left_val>-1.</left_val>
            <right_val>0.5111026763916016</right_val></_></_></trees>
      <stage_threshold>0.5111026763916016</stage_threshold>
      <parent>4</parent>
      <next>-1</next></_>
    <_>
      <trees>
        <_>
          <_>
            <feature>
              <rects>
                <_>
                  0 14 2 6 -1.</_>
                <_>
                  0 17 2 3 2.</_></rects>
              <tilted>0</tilted></feature>
            <threshold>-3.7727149901911616e-005</threshold>
            <left_val>-1.</left_val>
            <right_val>0.5310469865798950</right_val></_></_></trees>
      <stage_threshold>0.5310469865798950</stage_threshold>
      <parent>5</parent>
      <next>-1</next></_>
    <_>
      <trees>
        <_>
          <_>
            <feature>
              <rects>
                <_>
                  7 8 4 4 -1.</_>
                <_>
                  7 8 2 4 2.</_></rects>
              <tilted>1</tilted></feature>
            <threshold>4.4921548105776310e-003</threshold>
            <left_val>0.6797274947166443</left_val>
            <right_val>-0.9999905228614807</right_val></_></_></trees>
      <stage_threshold>0.6797274947166443</stage_threshold>
      <parent>6</parent>
      <next>-1</next></_></stages></output>
</opencv_storage>
